0.028209
0.045067
0.063076
-0.026658
-0.11728
-0.02971
0.1383
0.0042943
0.095329
-0.1519
0.29589
-0.11251
-0.20923
-0.32946
-0.24522
-0.16339
-0.15592
-0.11861
-0.33219
0.14075
-0.2366
0.066992
0.086889
-0.2915
0.077714
0.29674
-0.08012
-0.04106
0.088203
-0.23415
0.29504
0.429
-0.026332
0.3235
-0.080386
0.042344
-0.02992
0.17895
0.38008
0.085854
0.2337
0.080369
-0.020378
-0.035181
0.29537
0.028157
-0.043458
0.11146
-0.29043
-0.38581
0.22127
0.47602
0.4503
0.058811
-0.2983
0.0367
-0.17326
-0.14528
0.28703
0.046039
-0.2834
-0.22793
-0.21815
0.15614
0.28068
0.030092
-0.22913
-0.012877
-0.15512
-0.23678
-0.068828
0.13713
0.3921
0.45194
0.33258
0.07422
-0.092927
-0.087028
0.071134
0.053898
-0.12094
-0.045
0.3364
0.018351
0.03801
0.065055
-0.14644
-0.21668
-0.29481
0.099036
-0.17347
0.17079
0.35649
-0.11856
-0.069884
0.072562
0.13914
-0.26361
-0.0066074
0.19824
-0.18547
0.045767
0.060366
0.32282
-0.20589
-0.044644
0.29574
0.465
0.47654
0.20893
0.091344
-0.32208
-0.19489
-0.14075
0.12302
0.29394
0.1057
-0.23692
-0.32613
-0.12633
-0.068739
0.086218
-0.10257
-0.060648
-0.13499
-0.079724
0.19529
0.14798
-0.12798
-0.24959
0.23378
0.13524
0.063604
0.061118
0.25037
-0.22989
-0.04663
0.25361
0.31369
0.24042
-0.13508
0.091813
0.11844
-0.065798
0.14649
0.020242
0.19268
0.24392
-0.063585
-0.43091
0.31895
0.10685
-0.25101
-0.46048
-0.41809
0.026904
-0.26848
-0.078649
0.24025
0.037491
-0.24651
-0.17288
-0.11491
-0.14647
0.41087
-0.26831
-0.10278
-0.25034
0.17193
-0.1461
0.075869
0.30877
0.48287
0.40251
0.27002
-0.22383
-0.28522
-0.01872
0.26057
-0.076782
-0.3119
-0.13642
0.15124
0.41167
-0.12975
-0.037522
-0.35956
-0.29845
0.20416
-0.13689
-0.3233
-0.12013
0.42988
0.15874
0.32122
-0.12474
0.014745
-0.019246
-0.2202
-0.19557
0.078723
-0.29107
0.11124
0.24661
0.20721
0.065735
0.29663
0.22473
0.51709
-0.21772
-0.20985
-0.018533
-0.23133
-0.15884
0.23709
0.23605
-0.015022
-0.19644
-0.17142
-0.36326
0.30825
0.39036
0.33998
0.20102
0.28183
0.21157
-0.039923
0.01193
-0.18871
0.10407
-0.29928
0.022529
-0.065337
0.15594
0.17316
-0.11388
-0.071423
0.12655
-0.13714
0.22556
-0.21758
-0.063888
-0.025291
-0.0077462
0.11687
0.17753
0.28578
0.24204
0.016429
-0.42012
0.031102
-0.2096
-0.45216
-0.48653
-0.31996
0.28902
-0.27836
-0.31341
0.21824
0.092933
0.050232
-0.40621
0.012004
0.1088
0.063375
0.16893
0.18999
-0.15076
-0.083586
-0.096008
0.25791
0.061796
0.042847
-0.15555
-0.26429
-0.14911
-0.2474
0.28262
0.26097
0.23353
-0.29583
-0.16189
0.2263
0.43039
0.018201
-0.19826
-0.081764
0.029715
0.069929
-0.047742
-0.3932
-0.17807
-0.16453
0.25888
0.48483
-0.00043344
-0.0092636
0.27946
0.075769
-0.2052
-0.26145
0.0114
-0.19956
0.28765
0.074011
0.00062478
-0.32424
0.11529
0.43488
-0.19595
-0.13684
-0.17504
-0.25658
0.22259
0.19971
0.48782
0.34982
-0.2456
-0.53362
-0.22786
0.46131
0.37454
0.21737
0.29333
-0.018234
0.090974
-0.024986
0.051772
0.14832
0.19115
-0.26665
-0.19059
-0.033526
-0.24096
-0.075088
0.23714
0.5027
0.41345
-0.076794
0.071507
-0.16906
-0.34022
-0.10172
-0.13623
-0.030602
-0.19578
0.11175
0.39741
-0.10927
-0.41516
-0.073263
-0.097039
-0.24063
-0.0093668
-0.045121
0.38073
-0.41426
-0.20141
-0.077876
0.30759
-0.33536
-0.20436
0.19328
0.037796
0.10231
-0.20199
-0.044609
-0.15537
0.25403
-0.059651
-0.062789
0.068813
-0.40144
-0.35935
-0.08964
-0.21707
0.29945
0.25743
0.033545
0.40766
-0.19194
-0.25249
-0.033242
0.42081
0.11801
-0.2197
-0.18435
0.16148
0.19554
0.17052
-0.36992
-0.030236
0.060721
-0.031014
0.45912
-0.13314
-0.21382
0.075735
0.18632
-0.25919
0.10765
-0.18796
-0.28454
-0.21721
0.20346
-0.1932
0.041556
0.33653
0.29536
-0.18171
-0.13324
-0.042053
-0.14442
0.18991
0.31415
0.21651
0.4421
0.16347
-0.42039
-0.35217
0.34434
0.20108
0.11365
0.26092
-0.20893
0.16042
-0.15634
0.17926
-0.24141
-0.16966
-0.04004
-0.33708
-0.41123
-0.216
0.12008
0.13447
0.45868
0.099434
0.010999
-0.28803
-0.10661
-0.11949
-0.17847
0.26439
0.25542
-0.21606
0.40861
0.36981
0.12093
-0.12431
-0.1234
-0.29449
-0.23555
0.16923
0.049164
0.34815
-0.36248
-0.28757
-0.031762
0.33972
-0.091345
0.22637
0.22236
-0.097746
-0.034285
-0.14388
0.11446
0.23887
0.077809
-0.2354
-0.2711
-0.056387
0.092841
0.17311
-0.087328
-0.075422
0.18239
-0.16816
-0.16872
0.3666
-0.21981
-0.13797
0.21609
0.33239
-0.06943
0.10867
0.35177
0.040244
-0.10513
0.016871
-0.072638
-0.35408
-0.10294
0.25352
0.079808
-0.27
0.053624
0.14247
0.22626
0.20053
